#ifndef MODEL_ARCH_H
#define MODEL_ARCH_H
#include <stdint.h>

/* Auto-generated by new_train.py. Matches archway_npu RTL:
   - conv on the systolic array, NO bias (post_proc.v)
   - activations UNSIGNED uint8 written back, read $signed (pe.v)
     => we keep them in [0,127]; requant = clip((acc*qscale)>>qshift,0,255)
   - per layer: Cout<=128, Cin*K*K<=512, tensor<=32768 bytes
   - HEAD (1x1) + decode + NMS run on the host CPU (float). */

#define CANVAS        384
#define TILE          64
#define N_TILES       6
#define INPUT_CH      3
#define GRID          16      /* cells per tile side */
#define STRIDE        4      /* tile px per cell  */
#define NUM_CLASSES   3
#define NA            8      /* head outputs/cell = 5 + NUM_CLASSES */
#define LAST_CONV_CH  56
static const float INPUT_SCALE   = 7.8740157480e-03f;  /* q = clip(round((px/255)/INPUT_SCALE),0,127) */
static const float LAST_ACC_SCALE = 2.0356152001e-02f;  /* feat = uint8_out * LAST_ACC_SCALE */
static const float CONF_THRESH   = 0.3000f;
static const float NMS_IOU       = 0.4500f;
static const char* CLASS_NAMES[NUM_CLASSES] = {"small-vehicle", "large-vehicle", "human"};

typedef struct {
    uint32_t in_ch, out_ch;
    uint32_t k_h, k_w;
    uint32_t stride, pad;
    uint32_t pool;                       /* 1 = 2x2 maxpool after conv */
    uint32_t relu;
    uint32_t weight_offset, weight_size; /* bytes into weights.bin (int8) */
    uint32_t bias_offset,   bias_size;   /* bytes into biases.bin (int32, HW unused) */
    uint32_t qscale;  uint32_t qshift;
} layer_config_t;

#define NUM_LAYERS 4

static const layer_config_t model_layers[NUM_LAYERS] = {
    {3, 32, 3, 3, 2, 1, 0, 1, 0, 864, 0, 128, 59515, 23},
    {32, 32, 3, 3, 1, 1, 1, 1, 864, 9216, 128, 128, 52953, 24},
    {32, 48, 3, 3, 1, 1, 0, 1, 10080, 13824, 256, 192, 36054, 23},
    {48, 56, 3, 3, 1, 1, 0, 1, 23904, 24192, 448, 224, 39984, 23},
};

static const float DET_W[NA][LAST_CONV_CH] = {
    {-8.71040285e-01f, -2.93121040e-01f, -1.28022540e+00f, 9.64106545e-02f, -4.99874979e-01f, -1.93380252e-01f, 2.36439213e-01f, 3.20920825e-01f, -2.64456868e-01f, -4.37046081e-01f, -2.99714446e-01f, 4.48930740e-01f, -1.32288408e+00f, 2.62812942e-01f, 1.34962961e-01f, 1.46261811e-01f, 1.42219886e-01f, -1.15370423e-01f, -4.22992289e-01f, 5.81048191e-01f, -3.54173243e-01f, -4.16737974e-01f, -1.58723406e-02f, -2.32019976e-01f, -1.14771664e-01f, -7.56211996e-01f, 3.03469598e-01f, -1.05116338e-01f, -1.80789232e-02f, 3.62595767e-01f, 5.07685775e-03f, 9.68478978e-01f, -1.81618109e-01f, -4.86273468e-02f, -5.92141375e-02f, 4.18402642e-01f, 4.48491395e-01f, 5.70370853e-02f, 5.53314723e-02f, -1.30257523e+00f, -2.83483714e-01f, 1.70675859e-01f, 4.66993392e-01f, -4.09942389e-01f, 6.00240648e-01f, -1.35243684e-01f, -7.17803538e-02f, -3.16736698e-01f, -8.82840157e-01f, -5.21568954e-01f, 3.56372088e-01f, 2.33921409e-02f, 5.55172861e-01f, 7.01849699e-01f, -1.53163707e+00f, -3.09819043e-01f},
    {-6.18700609e-02f, 4.23483178e-02f, 7.05562904e-02f, 4.33276929e-02f, -9.58408490e-02f, 8.04438349e-03f, -3.92718799e-03f, 2.35922664e-01f, -4.44543846e-02f, -8.72047544e-02f, -1.23500582e-02f, -1.13947848e-02f, -7.73165375e-03f, 2.77592033e-01f, 2.43084803e-02f, -9.46451277e-02f, -1.39307514e-01f, 6.41465858e-02f, 1.36637455e-02f, 1.43373273e-02f, -2.94471383e-02f, 3.15604657e-02f, -1.61047250e-01f, -4.39778492e-02f, 4.69513722e-02f, -2.11495489e-01f, -2.29623746e-02f, -9.82149467e-02f, -1.18270360e-01f, 1.09997932e-02f, 5.87503538e-02f, -5.78972340e-01f, 1.00266449e-01f, 1.85525455e-02f, -1.83496308e-02f, -4.24970202e-02f, -4.21149172e-02f, -2.72439513e-02f, -5.93546689e-01f, -7.85240605e-02f, -2.48257746e-03f, 2.65905142e-01f, -1.81396425e-01f, 1.02684081e-01f, 6.30297512e-02f, -6.12919517e-02f, 1.56636730e-01f, 2.07331553e-01f, 6.54352596e-03f, 1.94584787e-01f, -3.46722692e-01f, -2.61983201e-02f, 6.33961201e-01f, -5.56358099e-02f, 2.24353187e-02f, 4.66051809e-02f},
    {5.45151472e-01f, -1.70295853e-02f, -4.27289233e-02f, 3.25575331e-03f, 9.84829962e-02f, 1.70166552e-01f, 5.13588861e-02f, 2.52436828e-02f, -1.11221552e-01f, 4.38699387e-02f, 4.55067568e-02f, -2.74173338e-02f, -1.52916592e-02f, -5.59117384e-02f, -3.03269196e-02f, 1.33476630e-02f, 1.19814120e-01f, -8.15011486e-02f, -1.41427983e-02f, -1.24293230e-01f, -6.73036426e-02f, -6.69908077e-02f, -2.70277318e-02f, 4.99425977e-02f, 1.75100192e-02f, 1.23593852e-01f, 5.96979447e-02f, -7.86803812e-02f, -6.01608157e-01f, -5.21071143e-02f, 2.67977417e-02f, 2.49319911e-01f, -5.52259311e-02f, -3.31361145e-02f, 8.04033577e-02f, -1.57532562e-02f, 2.58738585e-02f, 6.16140254e-02f, -5.15253246e-02f, -4.26566601e-02f, 6.38086423e-02f, 8.64049792e-02f, 5.15937358e-02f, 8.17356352e-03f, -6.91611543e-02f, -2.42306432e-03f, 1.71560459e-02f, -1.73497647e-01f, -3.77823301e-02f, 7.01852888e-02f, -4.63459492e-02f, 2.00129002e-01f, 2.92653013e-02f, -1.04086474e-01f, -2.65671350e-02f, -1.30065963e-01f},
    {9.46310535e-03f, -8.17584991e-02f, -8.19241703e-02f, 2.31057063e-01f, -9.47186872e-02f, -6.91230893e-02f, -1.17301702e-01f, 1.43460244e-01f, -1.09130308e-01f, -1.13420645e-02f, 3.90875079e-02f, 1.89266205e-01f, 1.08734690e-01f, -1.38623238e-01f, -9.73454788e-02f, -7.42342770e-02f, 1.89247668e-01f, 1.33257747e-01f, -8.28642622e-02f, -1.52122363e-01f, 8.44828784e-02f, -8.14996436e-02f, 6.77902326e-02f, -1.29681289e-01f, 7.00778589e-02f, 1.44775286e-01f, 1.95290577e-02f, 2.26274371e-01f, 2.12588683e-01f, -6.24170303e-02f, 2.71883532e-02f, 1.76982105e-01f, -1.11974470e-01f, 1.70114622e-01f, -2.33831435e-01f, 1.89700127e-01f, 1.85714945e-01f, 2.42265895e-01f, -5.53270243e-02f, -2.18075197e-02f, 1.41582400e-01f, 9.65885743e-02f, -1.25978868e-02f, 5.20828031e-02f, 3.76679689e-01f, 1.53249264e-01f, -6.22968972e-02f, -2.21532378e-02f, -1.64434798e-02f, -1.58351779e-01f, -1.42507210e-01f, -1.30754516e-01f, 1.83554664e-01f, 7.99945667e-02f, -2.13255078e-01f, 2.40170583e-01f},
    {-1.69798192e-02f, -1.36143386e-01f, -1.13802500e-01f, -1.31588997e-02f, -7.07318783e-02f, -1.44431770e-01f, -1.31172895e-01f, 2.72834927e-01f, -1.32309407e-01f, 1.15505740e-01f, -2.02812418e-01f, 1.61631256e-01f, 3.29476185e-02f, -9.18961391e-02f, -1.96517155e-01f, 4.39844243e-02f, 3.98490578e-01f, 3.80712785e-02f, -1.59543425e-01f, 1.42098796e-02f, 8.41039345e-02f, 1.55109495e-01f, 3.61788422e-02f, -2.11729869e-01f, 1.64521411e-01f, 1.99299037e-01f, 1.24148332e-01f, 6.92749396e-02f, 1.67431653e-01f, -8.36025476e-02f, 6.64926767e-02f, 2.53275841e-01f, -6.90495688e-03f, 7.83602223e-02f, -1.87592357e-01f, -5.04532680e-02f, 1.21085905e-01f, 1.82512552e-01f, 1.54317364e-01f, 9.35272798e-02f, 1.17548138e-01f, 6.79712221e-02f, -4.55364920e-02f, 1.23761602e-01f, 1.73461229e-01f, 2.56026927e-02f, 1.53499171e-01f, -8.32722560e-02f, 4.39295135e-02f, 2.01838955e-01f, -7.91058689e-02f, -1.01656005e-01f, 2.04218224e-01f, 3.88594151e-01f, -1.51101455e-01f, 2.23142192e-01f},
    {-3.52131613e-02f, -1.13238811e-01f, 9.08356085e-02f, 1.48987785e-01f, 7.96059966e-01f, -8.51854533e-02f, 4.79795821e-02f, 1.16932265e-01f, 1.16963647e-02f, -3.64942737e-02f, 3.62384498e-01f, 3.49916369e-01f, 1.69022083e-01f, -2.34875213e-02f, 2.61427432e-01f, 6.81173861e-01f, -1.99330896e-01f, 3.31189096e-01f, -2.82353014e-01f, -2.73138911e-01f, 3.86349291e-01f, 1.55813888e-01f, -1.41692618e-02f, 1.32143155e-01f, -1.70297429e-01f, -1.68444350e-01f, -4.13027197e-01f, -3.85880694e-02f, -5.21566793e-02f, 8.69242489e-01f, 2.97910929e-01f, 6.49962574e-02f, 2.93410838e-01f, 2.56576836e-01f, 2.73558442e-02f, -2.52657756e-02f, -2.60921597e-01f, -1.36647016e-01f, 1.20670069e-02f, -3.73004284e-03f, -5.40166441e-03f, -8.86014253e-02f, 1.09161817e-01f, -3.11165184e-01f, -7.21482873e-01f, -1.58815622e-01f, -1.35172457e-01f, 8.13888311e-02f, 2.66867340e-01f, -3.82058799e-01f, 8.48258361e-02f, -3.16975638e-02f, -2.30599232e-02f, 1.41410977e-01f, 2.48692945e-01f, 2.27173343e-01f},
    {-3.26318890e-01f, 1.19902015e-01f, -5.12671709e-01f, 5.21467090e-01f, -4.37394261e-01f, -1.11689381e-01f, 5.27652586e-03f, 2.52759874e-01f, 9.26430225e-02f, -2.09209442e-01f, 2.44004279e-01f, 5.40429294e-01f, 4.74469885e-02f, -1.96735024e-01f, -9.21571925e-02f, 1.05308138e-01f, -2.65797317e-01f, 2.25137040e-01f, 6.39219642e-01f, -4.38176751e-01f, -5.46353340e-01f, -4.97600555e-01f, -5.32154460e-03f, 1.12168275e-01f, 3.83535624e-01f, -4.19781864e-01f, -7.10271537e-01f, 4.78678606e-02f, 2.25238010e-01f, 2.17150673e-02f, -2.55813688e-01f, 2.82378376e-01f, -1.03036992e-01f, -1.31640032e-01f, -1.30080387e-01f, -2.09938899e-01f, 4.06050831e-01f, 5.03366768e-01f, 7.77444392e-02f, -2.03383073e-01f, 1.04764238e-01f, 2.00166985e-01f, 1.98390231e-01f, 6.09616101e-01f, 1.10025191e+00f, 5.25191844e-01f, -2.87300110e-01f, -5.78761816e-01f, 9.68649387e-02f, 3.45541179e-01f, -1.78190380e-01f, -1.37152553e-01f, 5.95884919e-02f, -5.08572394e-03f, -5.29932618e-01f, -6.06946945e-01f},
    {3.07201803e-01f, -8.00242499e-02f, 3.17416862e-02f, -6.06481731e-01f, -5.97042024e-01f, 7.88582787e-02f, -3.28989387e-01f, -3.58605266e-01f, 6.78893030e-02f, 3.49416405e-01f, -8.21813643e-01f, -8.61600459e-01f, -1.34618595e-01f, 2.01730385e-01f, -3.34203482e-01f, -9.11770463e-01f, 2.82239437e-01f, -7.96650469e-01f, -2.62433141e-01f, 5.41894197e-01f, 6.69995248e-02f, 2.65082628e-01f, 9.64766077e-04f, -6.51958108e-01f, -7.42081106e-02f, 1.78940758e-01f, 5.42493939e-01f, -1.31778240e-01f, -3.24265242e-01f, -1.90741658e+00f, -1.53512806e-01f, -1.81775868e-01f, -8.10540542e-02f, -3.37415248e-01f, 4.57169116e-02f, -4.62418534e-02f, -4.72187728e-01f, -5.54040253e-01f, -1.39398500e-01f, 2.64894783e-01f, 1.35063669e-02f, -1.47183286e-02f, -6.07270360e-01f, -1.82101846e-01f, -4.16706800e-01f, -3.65535378e-01f, 4.04857576e-01f, 4.23503458e-01f, -6.82444155e-01f, 7.63750225e-02f, 2.71003246e-01f, 2.14174896e-01f, -2.55318791e-01f, -5.00599332e-02f, 2.32737154e-01f, 1.05971523e-01f},
};
static const float DET_B[NA] = {-1.23301613e+00f, -7.91266561e-03f, -2.40947222e-04f, 1.62266523e-01f, 4.94425088e-01f, 6.08078659e-01f, -7.27701128e-01f, 9.26326141e-02f};

#endif /* MODEL_ARCH_H */
