#ifndef MODEL_ARCH_H
#define MODEL_ARCH_H
#include <stdint.h>

/* Auto-generated by new_train.py. Matches archway_npu RTL:
   - conv on the systolic array, NO bias (post_proc.v)
   - activations UNSIGNED uint8 written back, read $signed (pe.v)
     => we keep them in [0,127]; requant = clip((acc*qscale)>>qshift,0,255)
   - per layer: Cout<=128, Cin*K*K<=512, tensor<=32768 bytes
   - HEAD (1x1) + decode + NMS run on the host CPU (float). */

#define CANVAS        384
#define TILE          64
#define N_TILES       6
#define INPUT_CH      3
#define GRID          16      /* cells per tile side */
#define STRIDE        4      /* tile px per cell  */
#define NUM_CLASSES   3
#define NA            8      /* head outputs/cell = 5 + NUM_CLASSES */
#define LAST_CONV_CH  64
static const float INPUT_SCALE   = 7.8740157480e-03f;  /* q = clip(round((px/255)/INPUT_SCALE),0,127) */
static const float LAST_ACC_SCALE = 5.4195501673e-02f;  /* feat = uint8_out * LAST_ACC_SCALE */
static const float CONF_THRESH   = 0.1300f;
static const float NMS_IOU       = 0.4500f;
static const char* CLASS_NAMES[NUM_CLASSES] = {"small-vehicle", "large-vehicle", "human"};

typedef struct {
    uint32_t in_ch, out_ch;
    uint32_t k_h, k_w;
    uint32_t stride, pad;
    uint32_t pool;                       /* 1 = 2x2 maxpool after conv */
    uint32_t relu;
    uint32_t weight_offset, weight_size; /* bytes into weights.bin (int8) */
    uint32_t bias_offset,   bias_size;   /* bytes into biases.bin (int32, HW unused) */
    uint32_t qscale;  uint32_t qshift;
} layer_config_t;

#define NUM_LAYERS 8

static const layer_config_t model_layers[NUM_LAYERS] = {
    {3, 16, 3, 3, 2, 1, 0, 1, 0, 432, 0, 64, 49912, 24},
    {16, 48, 3, 3, 2, 1, 0, 1, 432, 6912, 64, 192, 64144, 23},
    {48, 56, 3, 3, 1, 1, 0, 1, 7344, 24192, 256, 224, 55961, 23},
    {56, 56, 3, 3, 1, 1, 0, 1, 31536, 28224, 480, 224, 36917, 23},
    {56, 56, 3, 3, 1, 1, 0, 1, 59760, 28224, 704, 224, 45001, 24},
    {56, 56, 3, 3, 1, 1, 0, 1, 87984, 28224, 928, 224, 36265, 24},
    {56, 64, 1, 1, 1, 0, 0, 1, 116208, 3584, 1152, 256, 63695, 23},
    {64, 64, 1, 1, 1, 0, 0, 1, 119792, 4096, 1408, 256, 49214, 23},
};

static const float DET_W[NA][LAST_CONV_CH] = {
    {-1.64233401e-01f, 6.15035333e-02f, 1.86597798e-02f, -1.69294223e-01f, 3.02542239e-01f, 6.30116463e-02f, 2.34604299e-01f, 1.44308835e-01f, 1.36807367e-01f, 1.77172516e-02f, 3.33721824e-02f, 1.05415136e-01f, 7.67742172e-02f, -4.30159122e-01f, -9.17378627e-03f, -5.13794087e-02f, -1.18258059e-01f, 1.16323240e-01f, 2.52183139e-01f, 2.55682081e-01f, 3.12070817e-01f, 1.68199763e-01f, 2.68741906e-01f, 8.37086141e-02f, 7.64342099e-02f, -6.79203719e-02f, -6.59610704e-02f, -4.23629433e-01f, 5.35835251e-02f, 9.69926268e-02f, -7.84653127e-02f, 2.10422829e-01f, 1.00792423e-02f, 2.27047473e-01f, -9.91115463e-04f, 1.54941514e-01f, -1.93027690e-01f, -2.98212230e-01f, 3.71933520e-01f, -1.05013363e-01f, 4.86790538e-02f, -9.91589651e-02f, -7.22929239e-02f, -8.49739537e-02f, -6.15654998e-02f, 1.60477296e-01f, 2.79621571e-01f, 3.74308005e-02f, 2.13264272e-01f, 1.32464945e-01f, -2.94300336e-02f, -1.49267400e-02f, 2.44700119e-01f, -1.47364810e-01f, 3.03473383e-01f, 6.82650134e-03f, -8.81205946e-02f, 8.67965370e-02f, -7.73302000e-03f, -7.06923157e-02f, 7.45556802e-02f, 2.50763327e-01f, -2.16813847e-01f, 3.17636997e-01f},
    {1.49570644e-01f, -3.12491562e-02f, -1.81937069e-02f, -1.96875390e-02f, -4.64922190e-02f, 2.48274565e-01f, 1.00207150e-01f, -1.98150247e-01f, 2.02624481e-02f, 4.44484092e-02f, -1.47253081e-01f, 1.13890290e-01f, 1.61500424e-01f, -2.15716988e-01f, -1.31781325e-01f, -2.93051973e-02f, 1.28698811e-01f, -5.93533590e-02f, -8.37290809e-02f, -2.85892278e-01f, -8.29160884e-02f, -1.08880892e-01f, -1.02415211e-01f, 3.85153256e-02f, -7.53782988e-02f, 3.40806767e-02f, 7.06990540e-01f, 3.49499434e-02f, 1.12169355e-01f, 5.21866269e-02f, 2.81057712e-02f, -1.17912134e-02f, -2.92533059e-02f, 2.00262526e-03f, -6.74306527e-02f, 9.99915320e-03f, 6.43853992e-02f, -1.78227772e-03f, 2.81975150e-01f, -6.55044973e-01f, -9.30749401e-02f, 8.04985344e-01f, -2.00637951e-02f, 1.58139899e-01f, -3.70734627e-03f, -2.03196965e-02f, 6.46248683e-02f, 1.04547329e-01f, -1.54173583e-01f, -1.07637323e-01f, 4.69114594e-02f, 1.57839820e-01f, -2.62626950e-02f, 1.57115802e-01f, 7.22752586e-02f, 6.52350187e-02f, -1.52588915e-02f, -4.36274767e-01f, -2.53432319e-02f, -3.63336280e-02f, -5.36419228e-02f, -4.41305071e-01f, 1.73678428e-01f, -6.86457194e-03f},
    {-1.40862122e-01f, 1.37421694e-02f, -1.31042764e-01f, -4.04967219e-01f, 1.46954268e-01f, 1.88347593e-01f, -1.11241071e-02f, -7.04324991e-02f, -3.27242836e-02f, -2.44365679e-03f, 1.74339622e-01f, 4.17137921e-01f, 1.07347369e-01f, 9.13281292e-02f, -2.79559016e-01f, -5.21564543e-01f, 2.57497996e-01f, 4.35469113e-02f, 2.68127918e-01f, -2.99049169e-01f, 1.07820526e-01f, -6.75866380e-03f, 4.57873464e-01f, -7.02755824e-02f, -5.01449592e-02f, -4.17709500e-01f, -2.01157480e-02f, -2.32149707e-03f, 5.91261238e-02f, -4.30896953e-02f, 1.07862882e-01f, 6.13427535e-02f, -1.59128457e-01f, 8.04295540e-02f, 3.57175916e-02f, 2.62262709e-02f, 3.09376270e-02f, -2.90202983e-02f, -1.07876360e-01f, 8.68211128e-03f, 1.10256888e-01f, -1.31971063e-02f, 1.12535991e-01f, -1.36234850e-01f, -1.04936674e-01f, 2.91447863e-02f, -2.65997034e-02f, -2.72507034e-03f, 2.02419743e-01f, -3.05825502e-01f, 2.92562783e-01f, 1.17886864e-01f, -6.37064502e-02f, 2.82973349e-01f, -3.68931681e-01f, -5.20329773e-01f, -1.82062704e-02f, 1.81684215e-02f, 5.23742378e-01f, -3.44265997e-01f, -1.46080814e-02f, 1.44228637e-01f, -1.19581997e-01f, -3.55141163e-02f},
    {1.16935320e-01f, 2.78218240e-01f, 1.55467493e-02f, 8.21932480e-02f, 1.44067049e-01f, -1.57953322e-01f, -1.29400892e-02f, -8.38337317e-02f, 2.14765176e-01f, 4.11614366e-02f, -5.68152033e-02f, -3.76636982e-02f, -3.21498886e-02f, 3.46911289e-02f, 1.02090538e-02f, 9.72008333e-02f, 1.87150121e-01f, 1.01776436e-01f, 7.79273883e-02f, 5.04858606e-02f, -1.83026027e-02f, 1.08761981e-01f, -1.66972149e-02f, 3.99649516e-02f, 1.99570239e-01f, -8.06310028e-03f, -2.15290207e-02f, -2.99857222e-02f, 1.29307643e-01f, 1.10120595e-01f, 2.07696036e-01f, 9.69604310e-03f, 6.83000982e-02f, -4.98021133e-02f, 1.58867106e-01f, -4.93165478e-03f, -3.69321853e-02f, -3.06588802e-02f, -7.36901388e-02f, -1.58072347e-04f, -3.53647545e-02f, -7.27948360e-03f, 3.82022671e-02f, -1.23579979e-01f, -1.35702461e-01f, -1.18321955e-01f, -1.40492078e-02f, 4.60809991e-02f, 2.88626496e-02f, -1.75235048e-02f, 1.57393932e-01f, 1.53327182e-01f, 1.92379221e-01f, -2.67989635e-02f, -2.33224239e-02f, -5.15306629e-02f, 6.92026913e-02f, -1.68757066e-01f, -2.81384354e-03f, -8.76513794e-02f, 2.08721124e-02f, 7.01889098e-02f, 5.16628884e-02f, 7.09882900e-02f},
    {3.12765725e-02f, 8.50210488e-02f, 6.09112643e-02f, 1.79389939e-01f, 1.79314837e-02f, 1.20293610e-01f, 3.82785425e-02f, -1.19972592e-02f, 8.93170387e-02f, 1.01564899e-01f, -7.40302205e-02f, -2.56879125e-02f, 1.34608135e-01f, -8.81036092e-03f, -3.80999260e-02f, -1.10959433e-01f, -6.47983626e-02f, -4.60145958e-02f, 1.14236780e-01f, 7.85556436e-02f, 3.73560609e-03f, 1.22640282e-01f, -4.77989912e-02f, -1.36375085e-01f, 1.00446396e-01f, -3.64304753e-03f, 2.80643348e-02f, 2.30476428e-02f, 1.69310629e-01f, 8.18355456e-02f, 4.00692597e-02f, -1.25074396e-02f, 2.04879805e-01f, 3.85242328e-02f, 2.67853518e-03f, 1.59342915e-01f, -8.92398581e-02f, -8.36835727e-02f, -4.96583059e-03f, 2.25514900e-02f, 1.89566195e-01f, -6.02266099e-03f, -2.41917782e-02f, -4.22724038e-02f, -1.49653316e-01f, -2.11804837e-01f, -1.60649102e-02f, 5.25960028e-02f, 2.51010582e-02f, -7.60796014e-03f, 1.63863271e-01f, 7.35802278e-02f, 4.15284559e-03f, 8.66510421e-02f, 9.53255803e-04f, 5.60122952e-02f, 1.12754986e-01f, -7.85677508e-03f, 5.49605058e-04f, -2.31084675e-02f, 5.46674691e-02f, 8.19889680e-02f, 6.14194833e-02f, 1.40449420e-01f},
    {2.94819385e-01f, 8.09147209e-02f, 1.16308011e-01f, -1.83172841e-02f, 1.65582806e-01f, -5.16768955e-02f, 1.13824971e-01f, 2.05744058e-01f, 1.93231434e-01f, 1.58410385e-01f, -1.36380032e-01f, -6.68563470e-02f, 8.11006352e-02f, -1.29115224e-01f, 1.07679218e-01f, -1.71303868e-01f, -9.95185040e-03f, 6.55860826e-02f, 3.00616801e-01f, 2.90736854e-01f, 3.20419282e-01f, 1.06744066e-01f, 1.51344398e-02f, 2.91449070e-01f, -6.93763467e-03f, 1.88045382e-01f, 9.81001332e-02f, 2.73285117e-02f, 1.13513656e-01f, 3.42015922e-01f, -7.03229150e-03f, -6.00279152e-01f, -2.00746104e-01f, -2.31359094e-01f, 2.58351386e-01f, 3.12631786e-01f, 2.28416711e-01f, 1.74415216e-01f, -6.29961416e-02f, 5.37878424e-02f, -2.23092452e-01f, 1.05936117e-02f, -3.50084633e-01f, -2.01473743e-01f, -5.49055599e-02f, 1.82465538e-01f, 4.49589610e-01f, -4.16300632e-02f, -3.26238573e-01f, 1.29376397e-01f, -2.97788262e-01f, -1.08581029e-01f, -3.97036485e-02f, 2.53315955e-01f, -1.49079815e-01f, 2.50844777e-01f, -6.03166185e-02f, -2.16432720e-01f, 2.84009546e-01f, 1.90711930e-01f, -4.03270662e-01f, -3.51085253e-02f, 6.49334416e-02f, 4.30647433e-01f},
    {-2.91921720e-02f, -1.10445075e-01f, -4.01216775e-01f, 9.28229243e-02f, -2.49998435e-01f, -1.88165009e-01f, -2.96881258e-01f, 5.24918474e-02f, -7.07956478e-02f, -2.47832946e-03f, 2.72302963e-02f, -5.02020657e-01f, -2.55151391e-02f, 1.16891935e-02f, 2.80636787e-01f, -1.51048750e-02f, 2.63463825e-01f, -1.73014998e-01f, -2.22140923e-01f, -3.60891134e-01f, -3.01613301e-01f, 1.03648029e-01f, -2.31636334e-02f, -7.82355592e-02f, -8.95860046e-02f, 2.36440733e-01f, 2.57811304e-02f, -2.71822244e-01f, -5.20206504e-02f, -1.57020390e-01f, 5.30951321e-02f, 7.87374914e-01f, 2.33773068e-01f, -3.25071476e-02f, -1.09429307e-01f, -2.84667686e-02f, 3.61150093e-02f, -3.85954119e-02f, 1.77919462e-01f, -1.72795042e-01f, -4.40652855e-02f, -8.17663893e-02f, 6.93124626e-03f, -3.54812294e-02f, -2.29111508e-01f, -5.92682734e-02f, -9.83999744e-02f, 2.57787019e-01f, -3.29374015e-01f, -6.00015759e-01f, 2.42881447e-01f, -3.02601844e-01f, 8.66753682e-02f, -1.76497638e-01f, -3.80974531e-01f, -5.21701455e-01f, 4.88811992e-02f, -9.78623852e-02f, 1.27845302e-01f, -1.13904670e-01f, 5.92661202e-01f, 1.49907038e-01f, -2.32180864e-01f, -4.55867916e-01f},
    {-3.90636653e-01f, 4.11000699e-02f, 1.87011316e-01f, 1.21479705e-02f, -2.67930418e-01f, 1.93594038e-01f, 2.12115765e-01f, -8.51767659e-01f, -2.61477418e-02f, -1.26351953e-01f, 1.73441112e-01f, 3.00150543e-01f, 2.86080465e-02f, -1.46852212e-03f, -6.61629796e-01f, -6.75352588e-02f, -1.59487769e-01f, -9.00834054e-02f, -2.04483017e-01f, 1.25668034e-01f, -1.59930736e-01f, -5.00858277e-02f, -3.75904590e-02f, -3.49567950e-01f, -3.54275465e-01f, -1.11988461e+00f, -9.24968068e-03f, 6.60452396e-02f, -3.98765504e-01f, -2.34047174e-01f, -1.81394145e-01f, -9.38635945e-01f, -2.78111190e-01f, 2.40930080e-01f, -2.18837768e-01f, -9.53833997e-01f, -1.62458137e-01f, -2.93780208e-01f, -2.75989711e-01f, -1.39962405e-01f, 3.50388080e-01f, 9.03178304e-02f, 1.20494515e-01f, 2.42915470e-03f, 9.87327099e-02f, -4.41107035e-01f, -9.92856443e-01f, -7.00596869e-02f, 5.34965158e-01f, 1.75440520e-01f, 5.86220883e-02f, 2.67311752e-01f, -3.03261608e-01f, -2.98872411e-01f, 2.57116646e-01f, 1.74556285e-01f, -3.98135513e-01f, 8.95011649e-02f, -1.19508231e+00f, 1.36877084e-02f, -2.70629138e-01f, -1.45363376e-01f, -4.17626053e-02f, -4.49739575e-01f},
};
static const float DET_B[NA] = {-2.35318518e+00f, 1.75159201e-02f, 4.95821945e-02f, 6.11453831e-01f, 9.39091444e-01f, 2.45307043e-01f, -6.14052653e-01f, 2.80539423e-01f};

#endif /* MODEL_ARCH_H */
